%YAML:1.0
my_svm: !!opencv-ml-svm
   svm_type: C_SVC
   kernel: { type:LINEAR }
   C: 2.6699999999999999e+000
   term_criteria: { epsilon:1.1920928955078125e-007, iterations:1000 }
   var_all: 64
   var_count: 64
   class_count: 10
   class_labels: !!opencv-matrix
      rows: 1
      cols: 10
      dt: i
      data: [ 0, 1, 2, 3, 4, 5, 6, 7, 8, 9 ]
   sv_total: 45
   support_vectors:
      - [ -6.93460606e-005, 1.33579320e-004, 3.00328047e-005,
          6.65168409e-005, -2.21838109e-005, 0., 0., 4.60442266e-007,
          9.33047268e-005, 1.22206591e-004, -1.17844182e-004,
          -1.93112828e-005, -1.91858617e-005, -3.48703725e-005,
          1.98523139e-005, 3.56577293e-005, -3.63752006e-005,
          -1.19434044e-004, -1.13385882e-004, -8.32571968e-005,
          3.71321948e-005, 6.08593473e-005, 7.66899175e-005,
          2.54409970e-004, 2.28195204e-004, 5.14542808e-005,
          -1.07446423e-004, -3.66694112e-005, 6.45379914e-005,
          6.14308592e-005, -2.74469858e-005, 2.82432666e-005,
          -5.01813010e-005, -2.92024652e-005, -4.41316843e-005,
          -1.09056724e-004, 4.31599619e-005, 7.31007531e-005,
          6.88953587e-005, 6.02689943e-005, -7.08062871e-005,
          -3.09826100e-005, 2.56410221e-005, 9.90912758e-006,
          3.83530205e-005, 1.19549521e-004, 3.50322043e-005,
          2.63548663e-005, 2.53760430e-004, 1.78583927e-004,
          1.03812934e-004, 8.11159916e-005, -4.22123812e-005,
          -7.41068143e-005, 4.12225154e-006, -7.81363997e-006,
          -9.25510612e-005, -1.01050035e-004, 9.83188147e-005,
          9.93672711e-006, 1.47264618e-005, -1.91432446e-005,
          2.62352187e-005, 1.49369671e-005 ]
      - [ 1.16099684e-004, 5.67089155e-005, 1.39995536e-005,
          -1.81914056e-005, -2.10514872e-006, -5.93341429e-005,
          1.74760462e-005, 4.08320084e-005, 2.30716487e-005,
          9.44030908e-005, 2.59619246e-005, -1.47124101e-005,
          -5.66697054e-005, -1.42826568e-004, -4.70744308e-005,
          2.07489102e-005, -1.02397435e-005, -1.88731035e-004,
          -1.05908286e-004, -5.33306229e-005, -8.99070365e-005,
          -1.34106379e-008, 8.45132308e-005, 8.43641537e-005,
          1.05556363e-004, -4.10145985e-005, -7.93011495e-005,
          -6.81575330e-005, -4.25587059e-005, 2.73787246e-005,
          4.35219408e-006, 6.58643112e-005, -4.69266306e-005,
          -3.48474277e-005, 1.84887085e-005, 2.62887497e-005,
          4.98325280e-005, 9.51274342e-005, -6.08782648e-005,
          4.64368577e-006, -4.96848115e-005, -1.20530487e-004,
          -1.11046847e-005, 7.03196201e-005, 7.37067749e-005,
          7.59591567e-005, 6.09446615e-005, -1.09883113e-004,
          1.39312004e-004, 1.26593921e-004, 8.95991470e-005,
          -2.64906812e-005, -1.83776247e-005, -1.28479631e-004,
          -5.13659288e-005, -8.72983674e-006, 1.35580689e-004,
          2.48688630e-005, -1.34138936e-005, 2.28847821e-005,
          -6.45399195e-005, -2.31932313e-006, -1.19226479e-006,
          4.43132703e-005 ]
      - [ 5.94270205e-005, 4.32795750e-005, -4.07837906e-005,
          -2.10005492e-005, 2.51058555e-006, -1.44071246e-005,
          2.36544935e-007, -2.00204659e-006, 7.90466947e-005,
          9.03660984e-005, 8.21652918e-007, -3.60530830e-005,
          -6.61248559e-005, -9.49479872e-005, -6.69482833e-005,
          -3.32974992e-006, 9.43123232e-005, -8.22784568e-005,
          -9.28630616e-005, -7.92548890e-005, -7.11608809e-005,
          2.99467520e-005, 3.42715903e-005, 6.38121637e-005,
          1.34246991e-004, 8.57164850e-005, -4.12534828e-005,
          -1.12979833e-004, -4.94338747e-005, -1.49301723e-005,
          -1.50861706e-006, 1.15754039e-004, -1.12721682e-006,
          -7.37459850e-005, -3.43865140e-005, 1.61444405e-005,
          4.53267567e-005, 7.90870035e-005, -2.03779036e-005,
          -2.09852624e-005, -8.58112180e-005, -3.64846965e-005,
          1.44086071e-005, -2.27491782e-005, 3.94134004e-005,
          7.94019506e-005, 1.20388097e-004, 2.65008057e-005,
          6.04045745e-005, 6.56966149e-005, 3.37147649e-005,
          5.80121632e-005, 3.79144294e-005, -1.96300207e-005,
          -6.82445971e-005, -3.01103573e-005, 1.72024957e-005,
          1.85475328e-005, -1.52939901e-005, 7.67626843e-005,
          -1.72803702e-005, -4.80843955e-005, -2.96524031e-005,
          3.33954522e-005 ]
      - [ 3.18749298e-005, 4.63004544e-005, 1.00899433e-005,
          8.12277067e-005, -3.84826053e-005, -4.08605702e-005,
          -5.33201164e-005, -4.60878364e-005, 5.96193931e-005,
          6.24052991e-005, 3.02891203e-005, 1.12469615e-005,
          -1.45911838e-006, 3.04695550e-006, 1.19956230e-005,
          6.38644924e-005, -7.22719915e-006, -1.11862049e-004,
          -2.47683220e-005, -6.76991622e-005, 3.03538727e-005,
          5.74927835e-005, 1.97982881e-005, 9.35759163e-005,
          1.22849902e-004, 3.02108128e-005, -8.80115294e-006,
          -1.23225793e-004, 3.34983895e-007, -7.88208636e-005,
          1.73774879e-005, 6.24849272e-005, -6.77628123e-005,
          -1.54136011e-004, -4.80686831e-005, -7.91026469e-005,
          -1.42281997e-005, 7.19849995e-005, 1.35767463e-004,
          -1.13333763e-005, -1.07266038e-004, -4.52236782e-005,
          9.15830969e-005, 5.23179369e-005, 2.96903982e-005,
          4.80010967e-005, 1.28151398e-004, -1.43233274e-005,
          1.14955321e-004, 1.80083807e-004, 4.93833577e-005,
          7.87701283e-005, 1.79685401e-006, -5.88231960e-005,
          -5.17931803e-005, 3.40215011e-005, 2.79507858e-005,
          -7.84198564e-005, -5.96978680e-006, 4.08558299e-005,
          -1.94460481e-005, -9.48840461e-005, -7.46457736e-005,
          5.28115670e-005 ]
      - [ -4.69415863e-005, 1.18535154e-005, 5.25046707e-005,
          1.01769176e-004, 3.42148924e-005, -4.04104576e-005,
          -4.68513463e-006, -3.12112716e-005, 3.06434886e-005,
          6.62144375e-005, 3.70747548e-005, -9.21819549e-007,
          -1.30696162e-005, -3.97949516e-005, -5.79936386e-005,
          -1.02511352e-004, 3.10046671e-005, -1.13483082e-004,
          -4.40292497e-005, -6.17801052e-005, -6.92986287e-005,
          7.05194034e-005, 1.64251451e-005, 6.98452059e-005,
          1.21970326e-004, 5.86499045e-005, -4.86086064e-005,
          -9.34566269e-005, -5.02566327e-005, 3.40647675e-005,
          7.50424661e-005, 1.24364233e-004, 3.68160072e-005,
          4.02760952e-006, 3.37428878e-006, -8.81157539e-005,
          -9.00920058e-005, -1.51207987e-005, 5.86777242e-005,
          6.59478901e-005, 7.07149229e-006, -5.45460098e-005,
          -8.76186605e-005, -8.31746220e-005, -4.70401392e-005,
          5.51347875e-005, 1.21792691e-004, 5.92575270e-005,
          -9.91184606e-006, 1.17160562e-004, 7.02600519e-005,
          6.72683236e-005, -2.41342968e-005, -7.08754087e-005,
          -1.16843948e-004, -6.78215147e-005, 3.31678348e-005,
          -2.74782888e-005, 5.68973046e-005, 7.92072533e-005,
          -3.15244943e-005, -6.84365368e-005, -1.03277169e-004,
          -4.10537086e-006 ]
      - [ -1.98013819e-004, -7.50272520e-005, 7.04791673e-005,
          1.59989300e-004, 1.13847775e-004, 2.40773570e-005,
          -1.02468162e-004, -2.14874362e-005, 6.72038295e-005,
          4.60036827e-005, -7.60380935e-005, -5.31698715e-005,
          5.75937884e-005, 4.27663363e-005, 1.58998660e-006,
          3.69584523e-005, -3.04760943e-005, -5.61489287e-005,
          -5.21293587e-005, 7.14224952e-005, -7.59690056e-006,
          9.98151809e-005, 2.89952714e-005, 5.69782133e-005,
          5.95514612e-005, 1.34411457e-004, 5.81248205e-005,
          -9.66690568e-005, -1.04471355e-005, 1.37301991e-004,
          3.24436805e-005, -4.44703692e-005, 4.92996405e-005,
          -1.78438622e-005, -1.35566937e-004, -1.40470918e-004,
          -1.24251470e-004, 1.31465786e-004, 1.42225472e-004,
          1.77237307e-004, 4.02202113e-006, -1.70659798e-004,
          2.60307734e-005, -1.22307747e-005, 8.23067312e-005,
          1.09953733e-004, 1.17038842e-004, 8.83391695e-005,
          2.13392224e-004, 1.01145517e-004, 5.39623761e-005,
          -2.26670854e-005, 1.06550709e-004, -5.71588389e-005,
          -1.65221663e-005, 8.08582190e-005, 4.30163709e-005,
          -1.51434979e-005, 1.72501568e-005, -1.33764319e-004,
          -1.14439672e-005, -3.78166224e-005, 2.21488954e-005,
          7.88629332e-005 ]
      - [ 1.16018920e-004, 4.62565076e-005, -4.82578162e-006,
          -1.83932170e-005, -8.79983272e-005, -2.33011106e-005,
          -1.47147148e-005, -1.59486751e-006, 8.44038805e-005,
          2.29423331e-005, -3.00615793e-005, -9.33961346e-005,
          -2.74719368e-005, -3.13555975e-005, -1.35161908e-005,
          8.48267082e-005, -1.16950159e-005, -1.32368164e-004,
          -6.79987643e-005, -4.50848747e-005, 2.10491762e-005,
          6.89730150e-005, 6.23921442e-005, 9.25238855e-005,
          1.65999038e-004, -5.62932546e-005, -4.90113562e-005,
          -3.82723083e-005, 6.21414292e-005, 4.08783308e-005,
          2.29198959e-005, -2.18934565e-005, 9.32559306e-006,
          -8.37965417e-005, -3.09874849e-005, -8.28519696e-005,
          -3.57062127e-005, 6.76632480e-005, 9.64229257e-005,
          2.78625394e-005, -6.14542805e-005, -1.36698782e-005,
          -4.57622045e-005, 1.36303497e-005, 2.89992331e-005,
          -1.62836786e-005, 2.02343381e-005, -5.31988808e-005,
          2.62994272e-005, 7.85926604e-005, 1.34900702e-005,
          7.95992746e-005, 9.06736750e-006, -1.98527177e-005,
          -7.33913039e-005, -6.83686958e-005, -7.64663782e-005,
          -9.60568941e-005, 1.20742043e-005, 1.31231718e-004,
          5.61503730e-005, -8.92134949e-007, -8.17631826e-006,
          4.04342900e-005 ]
      - [ 1.23572434e-004, 8.77353814e-005, 7.77617388e-005,
          -6.67054701e-006, -5.65286355e-005, -1.07708765e-004,
          -1.59105301e-004, -4.21405020e-005, 3.07350674e-005,
          1.25280028e-004, -1.30931352e-004, -5.63147807e-007,
          8.80270818e-007, -2.53250164e-005, -1.31501292e-004,
          -1.12590511e-004, 2.60379202e-005, -1.91041094e-004,
          -7.15223650e-005, -2.79696178e-006, 2.26214179e-005,
          6.32185620e-005, 5.88557668e-005, 6.34262688e-005,
          1.18083633e-004, 3.25149740e-005, -6.41664446e-005,
          -6.49084614e-005, 7.95645174e-005, 1.27692756e-005,
          -8.38415290e-005, -2.17740690e-005, -4.29003157e-005,
          -1.05843392e-004, -1.45235317e-004, -8.32162186e-005,
          -2.40942118e-005, 1.16185045e-004, 3.22795240e-005,
          7.30362517e-005, -5.96469472e-005, -3.39093713e-005,
          -1.95488956e-005, -3.73906033e-007, 3.77677898e-005,
          1.42697509e-005, 5.76028942e-005, 1.29044884e-005,
          1.78757284e-004, 1.28688567e-004, 2.22170656e-005,
          5.96221507e-005, 2.75456987e-005, -4.40205222e-005,
          -1.39236785e-004, -6.62342354e-005, 7.16365976e-005,
          -2.61361711e-005, -3.36727644e-005, -2.55990813e-006,
          -8.49591233e-005, -6.79348304e-005, -2.70435285e-005,
          4.05642350e-005 ]
      - [ 1.05599371e-004, 2.67111227e-005, -1.08453460e-005,
          4.73446453e-005, -8.19089200e-006, -4.57177921e-005,
          -5.73650104e-005, -1.19384735e-004, 1.53855683e-004,
          -5.38173372e-005, -3.97695294e-005, 9.85460974e-006,
          -1.01583319e-004, -5.44804898e-005, -8.33229278e-005,
          -1.19590277e-005, 4.81390016e-005, -1.06928703e-004,
          -1.12040245e-004, -6.81552920e-005, -1.69537816e-005,
          2.25226795e-005, 5.23037852e-006, 4.99144626e-005,
          2.45732110e-004, 9.55342912e-005, -9.03370528e-006,
          -9.69919056e-005, 1.24997159e-005, -3.65439919e-005,
          8.35027313e-005, 1.15907307e-004, -5.37391170e-005,
          -8.04982847e-005, -3.32900672e-005, -1.14721654e-004,
          -7.09003871e-005, 6.82490499e-005, 7.56583831e-005,
          3.84373525e-005, -1.12928799e-004, 4.17835799e-005,
          6.09219096e-005, -6.28171256e-005, -4.35367256e-005,
          -2.14110719e-006, 7.83561482e-005, 3.33956887e-005,
          1.13560956e-004, 9.23065381e-005, 1.97195059e-005,
          1.23217163e-004, 2.90285843e-005, 1.14893228e-005,
          -7.13434565e-006, -8.50162178e-005, -1.13124021e-004,
          -7.72550993e-005, 9.45331776e-005, 1.96488312e-004,
          4.15402028e-005, -7.15139686e-005, -6.45224136e-005,
          -4.72929496e-005 ]
      - [ 1.24903017e-004, 1.83118551e-004, 5.47497693e-005,
          -2.15244108e-005, -7.90760823e-005, 5.28618366e-005,
          -1.29251357e-005, -6.32357433e-006, -2.21446826e-005,
          -4.54993533e-005, 1.28748317e-004, -9.00349623e-005,
          3.39180260e-005, -3.59787155e-005, -1.13405687e-004,
          2.34735227e-004, 3.44761975e-005, -1.16153380e-004,
          -6.20366336e-005, -1.17372947e-004, 9.61316400e-005,
          -1.73551343e-005, -2.31491904e-005, -4.43273129e-005,
          -1.34953343e-005, -7.40502446e-006, 8.88211143e-005,
          4.19762000e-005, -2.25926255e-004, 9.16686247e-007,
          -8.75956175e-005, 9.97497864e-006, -2.53232894e-004,
          -5.17994777e-005, 1.29379143e-004, -3.89818961e-005,
          -1.25226006e-005, -5.84294903e-005, -8.41940200e-005,
          3.85057610e-005, 7.14497291e-005, 3.94436938e-005,
          6.73460704e-007, 2.55354871e-006, -2.34120416e-005,
          -8.14566229e-005, 1.24012274e-006, -1.06738378e-004,
          2.36612366e-004, -1.05580082e-004, 5.93396180e-005,
          -1.11063513e-004, -1.28482527e-004, -5.69715994e-005,
          -5.50182522e-005, 1.25647101e-004, 1.35454509e-004,
          -1.58332201e-004, -7.73899228e-005, 1.11178015e-005,
          -1.38158211e-004, -1.73892695e-004, -8.46814437e-005,
          1.08996115e-004 ]
      - [ 7.23523626e-005, 3.93353948e-005, -6.58224526e-005,
          -1.56759808e-004, -6.90079614e-005, 1.39067779e-005,
          -5.71426244e-006, -3.45627882e-007, -4.27787336e-006,
          -3.31565825e-005, 9.67105152e-005, -6.80059093e-005,
          -9.47090011e-005, -9.10554227e-005, -9.28448426e-005,
          1.45206664e-004, 1.30369604e-004, 3.79226299e-006,
          -6.29464557e-006, -1.90430019e-005, -5.84871923e-005,
          -4.79675728e-005, -1.68200202e-007, 0., -9.31085924e-006,
          -1.01436635e-005, -8.65472521e-006, 5.81524728e-005,
          -7.41887925e-005, -1.06340281e-004, -6.17486658e-005,
          9.25592976e-005, 8.34646344e-005, -4.49437757e-005,
          3.38832870e-005, -3.99283053e-005, -1.21240118e-005,
          -7.95004526e-005, -2.77507133e-005, 7.43139535e-005,
          4.30171895e-005, 1.93789601e-005, -2.46825875e-005,
          1.47493995e-006, 6.19277807e-006, -1.08820695e-005,
          -4.28539242e-005, 1.19256501e-005, -8.66847040e-006,
          -8.42799127e-005, -3.83720508e-005, 4.85053670e-006,
          5.94332450e-005, 8.49060161e-005, -1.51569493e-005,
          2.47129265e-005, 9.47859953e-005, -1.99801259e-004,
          -3.54367403e-005, 1.01863414e-004, 9.89662476e-006,
          -2.10254802e-006, -5.35360377e-005, -2.46504133e-005 ]
      - [ -2.35930129e-005, -2.00744744e-005, 3.91037283e-005,
          -7.84416407e-005, -6.58273057e-005, -8.01662318e-005,
          -1.29185762e-004, -1.59631687e-004, -1.29275184e-004,
          -5.42753005e-005, 1.68504033e-004, 2.66047732e-006,
          3.61598577e-005, 4.93575317e-005, 2.10821745e-005,
          1.88740858e-004, 5.77092978e-005, 3.56290548e-005,
          1.34946618e-004, 2.50364537e-005, -1.07843198e-005,
          -1.18052572e-004, -4.82677133e-005, -8.71406373e-005,
          -5.76312814e-005, -5.03701231e-005, 7.22496989e-005,
          -2.19835438e-005, -2.45895877e-004, -2.36085310e-004,
          -2.39206256e-005, 5.36680163e-005, -6.43293824e-005,
          -1.52703389e-004, -9.38491939e-005, -1.50914741e-004,
          -4.50665248e-005, -9.56076633e-007, 4.44349826e-005,
          1.40955264e-004, 1.11734800e-004, 1.21589510e-005,
          -2.19277354e-006, -6.82477639e-006, 2.50476296e-005,
          1.99603983e-005, 2.57464762e-005, -3.06992079e-005,
          6.31902512e-005, -1.21675541e-004, -9.02533939e-005,
          -6.16630859e-005, 7.53023824e-006, 9.09122828e-005,
          5.91041280e-005, 1.19662458e-004, -1.09719786e-005,
          -2.03789197e-004, -6.26836991e-005, 4.80161543e-005,
          -6.53787356e-005, -5.31849983e-005, -1.56951573e-004,
          1.59234060e-005 ]
      - [ -3.62734172e-005, 2.49778441e-005, 1.90402193e-006,
          -3.34274700e-005, 4.24566497e-006, 2.91019369e-005,
          -2.04666540e-005, -1.48924028e-005, -7.63784992e-005,
          -2.43117647e-005, 6.07894654e-005, 1.75130990e-005,
          3.76852986e-005, 4.72327010e-005, -1.27493680e-004,
          -4.18187228e-005, 1.06444939e-004, 7.71104751e-005,
          -1.48230713e-004, 1.50223204e-005, -9.01224394e-006,
          -3.31573319e-005, -3.81715217e-005, -5.39425264e-006,
          1.53734303e-009, 9.96075300e-007, 4.72248721e-005,
          -1.57036731e-004, -3.55112497e-005, -7.20874159e-005,
          9.24727374e-006, 7.06276987e-005, 7.01894605e-005,
          2.83463601e-006, 1.91329600e-005, -3.86949068e-005,
          -8.83029279e-005, -5.61967681e-005, -5.42952039e-005,
          1.47424318e-004, 6.83302860e-005, -2.89186537e-005,
          -1.15392562e-004, -9.11023380e-005, -1.68871829e-005,
          2.52989435e-006, -1.55638481e-005, 4.24930622e-005,
          -4.35960355e-005, -9.99480617e-005, -2.63393008e-006,
          -5.58180145e-005, -5.03279944e-006, -1.84337860e-005,
          -2.15071195e-005, 1.94979257e-005, 1.12252208e-004,
          -9.47703447e-005, -7.93924555e-005, 3.88189474e-005,
          -3.70573871e-005, -1.09523471e-005, 1.35877826e-005,
          -8.26917531e-005 ]
      - [ -9.67391388e-005, -9.16446952e-005, 1.90780920e-004,
          1.72285309e-005, 3.66950553e-005, 4.95381073e-006,
          -7.82970346e-006, -7.91199909e-006, -1.01589731e-005,
          -8.54715836e-006, 1.27579522e-004, 1.25605702e-005,
          1.30613562e-005, 1.92181142e-005, 1.96603323e-005,
          1.35040391e-004, 1.96093824e-005, -5.20846006e-005,
          1.29784803e-005, 6.10832794e-005, 4.07054467e-005,
          -5.54867838e-005, -1.01414289e-005, -4.51082378e-005,
          -4.84342927e-005, -1.55598900e-005, 2.15646396e-005,
          5.23113631e-005, 2.19462854e-005, -1.91776009e-004,
          1.35057298e-005, 1.06632258e-004, -2.46970340e-005,
          -6.11931364e-006, 2.47814442e-005, -4.22766570e-005,
          -4.06451145e-005, -1.23204212e-004, -1.05786705e-004,
          2.04302210e-004, 1.90530787e-004, -1.85378143e-004,
          -1.29347718e-005, -3.56897840e-006, 1.52354878e-005,
          8.92390744e-006, 1.65524034e-005, 2.47570733e-005,
          6.67222994e-005, -4.18780037e-005, -2.13476633e-005,
          -3.50794949e-007, -4.39751202e-005, 4.68668950e-005,
          -2.58588316e-005, 1.21859579e-004, 1.60462994e-004,
          -1.24577404e-004, -1.48368359e-004, -9.85072911e-005,
          -3.54965996e-005, 6.32468145e-005, -1.82935128e-005,
          -3.38314931e-005 ]
      - [ 2.28787540e-004, 2.15933392e-006, -1.40349484e-005,
          -2.19664231e-004, -1.41338460e-004, 1.13448441e-005,
          3.65554865e-006, 0., -5.21715956e-005, -8.08805707e-005,
          2.36319283e-005, -2.13042251e-004, -1.44900696e-004,
          -2.31920512e-005, -3.92741422e-005, 2.73791666e-004,
          -7.38307281e-005, -4.15186842e-005, 1.36266593e-004,
          -2.58071741e-005, -2.96386897e-005, 2.09300808e-007, 0., 0.,
          -3.74094839e-006, -1.33205340e-005, 1.65241599e-005,
          1.53406181e-005, 7.97970206e-005, -3.07767004e-005,
          -1.45543716e-004, 9.08722086e-006, -7.98623205e-006,
          -5.84156805e-005, 1.53099572e-005, -1.36786301e-004,
          -9.66177104e-005, -3.09446732e-005, 6.19508646e-005,
          9.49031237e-005, 1.07961670e-004, 3.57842728e-005,
          -3.02381886e-006, 9.68635777e-006, -3.85883723e-005,
          -1.31319204e-004, -7.68018144e-005, -5.91685312e-005,
          -1.65184683e-005, -2.51567144e-005, -1.33743801e-004,
          3.70010355e-007, 1.55926537e-005, 7.67089150e-005,
          1.63080458e-005, -7.54169305e-005, -6.77582793e-005,
          -1.52001012e-004, -4.11532637e-005, 9.42290644e-005,
          1.11253234e-004, -2.28412464e-005, 8.02407976e-006,
          3.38420650e-005 ]
      - [ 1.78731105e-004, 4.38906609e-005, -2.82586534e-005,
          -1.99238944e-004, -5.21444672e-005, 4.05237879e-005,
          -4.40809672e-005, -6.91990281e-005, -3.27738744e-005,
          -6.96489878e-005, 9.61652622e-005, -6.43781605e-005,
          1.02301245e-004, 1.10673864e-004, -1.59462841e-004,
          5.85342023e-005, -2.29137149e-005, -3.35045879e-005,
          9.79026809e-005, 1.12051966e-004, 2.82179626e-005,
          -2.53798862e-005, -5.24065799e-005, -1.50276674e-005,
          -2.02032934e-005, -5.14544408e-005, 2.71223817e-005,
          -8.62305096e-005, 9.21625469e-005, -1.11481619e-004,
          -1.07449509e-004, -8.30443696e-006, -3.61540624e-005,
          -1.26447849e-004, -5.30293346e-006, -2.65284965e-004,
          -2.46477110e-004, -1.83203883e-004, -1.88879967e-005,
          1.78517599e-004, 1.04520783e-004, -8.84943292e-005,
          -1.09461544e-004, -4.67342979e-005, -3.95655261e-005,
          -3.64324442e-005, -7.86826131e-005, -2.54909610e-005,
          -2.32671073e-006, -6.85943087e-005, 5.29419558e-005,
          -2.57052875e-006, 4.47222774e-005, 1.53219691e-004,
          -1.89945349e-004, 5.21447555e-006, 1.50839842e-004,
          -1.81771655e-004, -1.47176877e-004, 3.60574559e-005,
          -1.46590261e-004, -3.03696597e-005, -1.10347879e-004,
          4.16894763e-005 ]
      - [ 7.16868317e-006, -4.18255222e-005, -1.68676324e-005,
          -9.07956855e-005, -9.11888346e-005, -2.49643472e-005,
          -8.12631624e-005, -3.73767034e-005, -1.45694779e-004,
          -1.40393022e-004, 1.23793259e-004, -3.93982918e-005,
          1.18143216e-005, 2.04357148e-005, -3.79674202e-005,
          1.98757465e-004, 2.92632267e-005, 4.11232286e-005,
          1.45316635e-005, 3.86723769e-007, -9.60742909e-006,
          -1.07912478e-004, -2.20257425e-005, -7.76944944e-006,
          -8.25726943e-007, -8.97320933e-006, 1.19088843e-004,
          -9.02710235e-005, -9.49211535e-005, -2.69528216e-004,
          -1.56242706e-004, 2.81993271e-004, 3.98496049e-005,
          -5.76439270e-005, -8.61314111e-005, -1.27945910e-004,
          -1.41864526e-004, -1.22835147e-004, 1.11930649e-005,
          1.65841746e-004, 1.23889607e-004, 8.57007326e-005,
          -1.23541950e-005, -6.71055168e-005, -6.05539899e-005,
          -6.43639287e-005, -2.41972593e-005, 5.77483524e-006,
          -9.41226172e-005, -9.71121917e-005, -2.60360430e-005,
          -2.14108004e-005, 4.23057645e-005, 1.45315047e-004,
          -1.52246321e-005, 5.20922811e-007, -1.32827015e-004,
          -2.01267219e-004, -2.47365078e-005, 1.67196122e-004,
          1.37082563e-004, -6.29192364e-005, -8.52242156e-005,
          -3.40323277e-005 ]
      - [ -1.43025754e-004, -4.50518739e-004, -3.23902554e-004,
          -4.20954835e-004, -3.02555418e-004, 5.41530666e-004,
          1.62019496e-004, 1.34686270e-004, -1.75672118e-004,
          8.77848215e-005, -2.33361177e-004, -3.06060974e-005,
          -2.11406150e-004, -3.98306933e-004, 2.45619995e-005,
          -1.80560732e-004, 4.88311576e-004, 3.66311433e-004,
          2.48766679e-004, 3.03166307e-004, -1.89742626e-004,
          -3.23322369e-004, -6.28472335e-005, 1.54189911e-004,
          5.06956421e-004, 5.64404821e-004, 1.27422172e-004,
          1.08829754e-005, -2.23217212e-005, 1.49474625e-004,
          -3.11828044e-005, 3.45028762e-004, 3.38285317e-004,
          3.78201876e-005, -2.37743734e-004, 3.63875995e-004,
          1.15433490e-004, 1.71764419e-004, 2.20198359e-004,
          3.54595861e-004, 2.59588473e-004, -2.92838376e-005,
          -2.02903873e-004, 2.24770673e-004, 2.94509897e-004,
          4.13006055e-004, 3.24675202e-004, 8.23424431e-004,
          -2.80697277e-004, -3.25683039e-004, -2.35210740e-004,
          2.71571160e-004, 2.06532583e-004, -7.89934638e-005,
          -1.77435155e-004, -4.42716846e-004, -3.04812274e-004,
          -1.94045235e-004, -5.42071139e-005, 6.99684097e-005,
          1.08231121e-004, 3.89491353e-004, -5.54187536e-005,
          8.73881982e-006 ]
      - [ -1.13850001e-004, -1.40841410e-004, -5.23920717e-005,
          1.74260684e-004, -7.38239687e-005, -1.31776198e-006,
          -6.34224998e-005, -8.18105036e-005, -1.43193960e-004,
          -2.02753436e-005, 5.42903617e-005, 1.66631595e-004,
          2.10423459e-004, 2.46154610e-004, 1.72737651e-004,
          6.23907472e-005, -9.90924218e-006, 1.13491922e-004,
          1.53813264e-004, 2.50714977e-004, -3.37766869e-005,
          -2.57904071e-006, -8.12926592e-005, -7.03548722e-005,
          -2.78117168e-005, 1.55302951e-005, -2.23559400e-004,
          -4.90377424e-005, 4.36153096e-005, -1.59411138e-004,
          -9.24935011e-006, -2.91641554e-005, -6.12092026e-006,
          -2.10728012e-005, -1.91888088e-004, -2.29347042e-005,
          1.24029088e-004, 8.77663842e-005, 1.28323678e-004,
          2.50884568e-005, -1.68778624e-005, 1.53752204e-004,
          -6.09029485e-006, 1.80454721e-004, 1.27254156e-004,
          1.20986340e-004, 6.24154127e-005, -9.97925417e-006,
          -5.31290607e-005, 1.76732119e-005, -4.12596019e-005,
          3.19691753e-005, 1.04695609e-004, 1.79879207e-004,
          1.79441577e-006, 7.76285560e-006, -1.22071142e-004,
          -1.25924911e-004, 5.87736904e-005, -5.99122141e-005,
          1.62055600e-004, -4.79651426e-005, -2.20084316e-004,
          -8.54521859e-005 ]
      - [ -1.51864195e-004, -4.73539076e-005, 2.33215851e-005,
          1.17713580e-005, 5.41128211e-005, 6.85767445e-005,
          2.60339020e-005, -9.35295338e-006, -8.48577984e-005,
          2.93795483e-006, 1.20696299e-004, 5.57246531e-005,
          8.20062123e-005, 6.47286070e-005, -1.18593904e-004,
          -1.98370457e-004, 1.17880358e-004, 1.57990304e-004,
          1.24546386e-005, 2.58000182e-005, -4.26427032e-005,
          3.72258864e-006, -2.63679776e-005, 1.79475210e-005,
          6.89047301e-005, 7.35573121e-005, 6.91377136e-005,
          -3.82674734e-005, -9.51043476e-005, 1.50261922e-005,
          5.19339264e-005, 6.63298779e-005, 1.92803374e-004,
          1.28798216e-004, 6.79734512e-005, -2.01646126e-005,
          -7.63015996e-005, -9.50370886e-005, 4.04092534e-005,
          1.27471343e-004, 1.76990841e-004, -5.51724006e-005,
          -1.86041318e-004, -1.93935150e-004, -5.42822017e-005,
          4.14917777e-005, 3.52940951e-005, 1.41643613e-004,
          -1.29426815e-004, -8.87083588e-005, -9.22541294e-005,
          6.38503698e-005, 9.88100783e-006, -2.87161911e-005,
          1.70007843e-006, -8.85156769e-005, -1.47673927e-004,
          6.72611932e-005, 1.02894905e-004, 8.62671441e-005,
          3.99263845e-005, 8.64019385e-005, -2.14191205e-005,
          -1.21370416e-004 ]
      - [ -2.53298436e-004, -1.00660131e-004, -2.61199075e-005,
          1.86253994e-004, 3.31779811e-005, 9.56863951e-005,
          6.50856891e-005, 3.68323927e-005, -8.18003027e-005,
          -7.45346479e-005, -9.32668336e-005, 1.56050271e-004,
          2.15388882e-005, 1.78045433e-004, 1.40626347e-004,
          7.74522268e-005, 7.57975504e-005, 1.09951958e-004,
          6.63220198e-005, 7.61824631e-005, -3.09635980e-005,
          1.36154522e-005, 6.65160314e-006, 4.97375731e-006,
          -4.18100353e-005, 8.62990491e-005, 2.20884231e-005,
          8.85306217e-005, -6.28117195e-005, 7.79417533e-005,
          5.28046221e-005, -3.33724201e-005, 1.52609064e-004,
          -1.11899972e-005, -9.21150495e-005, -2.32189614e-005,
          -2.25881886e-005, 6.14300079e-005, -3.21098196e-006,
          1.68186976e-004, 7.28061787e-005, -3.36430130e-005,
          -2.43923550e-005, -6.46007247e-005, 1.02036254e-004,
          7.20643875e-005, 5.74141195e-005, 6.53525276e-005,
          -1.40340971e-005, -8.69266587e-005, -6.81564343e-005,
          6.64232502e-005, 7.93482177e-005, 2.27525179e-005,
          7.10953202e-007, -4.01297875e-005, -1.87137102e-005,
          -2.80597703e-007, -4.71176318e-005, -4.15314717e-005,
          -2.40760401e-005, 9.11116240e-006, -2.12867890e-005,
          -6.29326241e-005 ]
      - [ 2.19282898e-004, -5.84181616e-005, -2.05701566e-004,
          6.10687785e-005, -4.64719415e-005, 1.70702246e-004,
          -1.21552221e-005, 2.69893590e-005, -5.41323288e-006,
          3.43808788e-005, 1.41693119e-004, -2.26555658e-005,
          -1.66989514e-004, -1.44705218e-005, 1.72426298e-004,
          2.04701777e-004, -2.16448840e-004, -2.99089788e-006,
          2.51905061e-004, -2.31614264e-004, -7.30038955e-005,
          1.35611685e-004, 2.01540955e-004, 1.23947029e-004,
          3.48307585e-005, -4.69515289e-005, -2.31586164e-004,
          -3.11473086e-005, 3.42809391e-004, 9.54353018e-005,
          7.03590922e-005, -1.67292528e-004, 1.91655912e-004,
          1.79209179e-004, 6.41521256e-005, 1.83712182e-005,
          -1.88404170e-004, 3.22667183e-004, 1.87498197e-004,
          1.26931249e-004, 9.59309909e-005, -1.10138644e-004,
          -2.33987648e-005, -5.42372836e-005, -1.88884878e-004,
          -1.17148724e-004, 4.72184365e-005, -1.03753751e-004,
          -1.18105250e-004, 3.11043077e-005, -3.28514579e-004,
          3.35034099e-004, 2.20557854e-006, -6.98135264e-005,
          4.95629538e-005, 6.43279491e-005, -4.01013182e-004,
          -3.01986845e-004, -3.57106801e-005, 1.49598069e-004,
          4.93407424e-004, 2.22751783e-004, 1.13447844e-004,
          -2.56040832e-004 ]
      - [ -9.42430634e-005, 3.84949781e-005, -1.12449954e-004,
          5.90009404e-005, -5.80998749e-005, -1.51497414e-004,
          -4.47044586e-004, 2.49357399e-004, -2.10138496e-005,
          -2.03723030e-004, -3.10290285e-004, 1.85901154e-004,
          2.28767283e-004, -1.51726435e-005, -4.59895324e-004,
          -4.73881664e-004, -3.92685688e-005, 3.01129417e-004,
          1.76406626e-004, 3.33774689e-004, -2.07382051e-004,
          -9.06466157e-005, -8.52768571e-005, -2.42792477e-004,
          4.26776060e-005, 4.86239805e-005, 5.40680667e-005,
          3.37955134e-004, 2.05456658e-004, 1.14870578e-004,
          -7.08373045e-005, -3.56743913e-005, 2.67100899e-004,
          -7.09156229e-005, -1.30961664e-004, 1.78871007e-004,
          -3.02945293e-004, -1.21739395e-004, 6.67546337e-005,
          2.68392905e-004, -6.40309154e-005, 2.91624547e-005,
          -9.94190050e-005, -8.71155280e-005, 1.18440708e-004,
          2.12083578e-005, 3.19622108e-004, 4.59065574e-004,
          -1.80176212e-004, -3.18703096e-004, -2.78332591e-004,
          1.52370543e-004, 3.58559802e-004, 1.00573685e-004,
          -2.43335700e-004, -4.00309887e-004, -1.22011930e-004,
          -2.34734634e-005, 3.94749150e-005, -2.23455281e-004,
          -7.69742037e-005, 2.53897833e-005, -9.58339515e-005,
          -1.17337571e-004 ]
      - [ -8.44416427e-005, -9.76806768e-005, -4.74413500e-005,
          -1.42870722e-005, 2.01323328e-005, 6.33481250e-005,
          -3.90328423e-005, -4.12159097e-005, 4.01172474e-006,
          -9.49939640e-005, -7.40468749e-005, 7.06740830e-005,
          6.64918989e-005, 8.56942061e-005, 4.08780725e-005,
          -1.01632882e-004, 2.44140501e-005, 6.21365398e-005,
          6.63120445e-005, 1.62995071e-004, -3.61724851e-005,
          -6.93461916e-005, -1.71047650e-005, -5.02530238e-005,
          4.05135870e-005, -1.25357274e-005, 7.78146277e-005,
          2.89342079e-005, -1.28618353e-006, -8.58988569e-005,
          6.10120078e-005, 3.94231502e-005, 9.45114516e-005,
          -1.62338401e-005, -8.33944141e-005, -6.92249841e-006,
          -8.99092265e-005, 2.97203551e-005, 5.79775442e-005,
          -1.68025254e-005, 7.71505802e-005, -9.66186349e-007,
          -1.47949322e-005, -6.77335920e-005, -6.26367691e-005,
          -6.96631878e-006, 6.00762978e-005, 1.25920022e-004,
          -1.47922925e-004, -2.17683555e-005, -1.03707156e-004,
          3.88892477e-006, 1.49843268e-004, 1.09165558e-004,
          9.85802981e-005, -6.79298537e-005, -2.10249069e-004,
          -1.20624536e-004, 1.47327126e-004, 1.25585546e-004,
          2.12687810e-005, 3.56032033e-005, -6.22178632e-005,
          -9.30487804e-005 ]
      - [ -9.81520789e-005, 1.35091732e-005, 1.30371147e-004,
          1.11836620e-004, 8.07163524e-005, -6.99072625e-005,
          -6.92465837e-005, -1.28228741e-004, -1.18633703e-004,
          8.70990552e-005, -7.50252730e-006, 2.14225816e-004,
          1.56393784e-004, 1.98598660e-004, 1.26351559e-004,
          -5.76685889e-005, -1.32020592e-004, 8.30861100e-005,
          1.04643608e-004, 1.39588374e-004, 5.09836791e-005,
          -2.04597131e-006, -4.44051439e-005, -7.53609420e-005,
          -1.31406277e-005, -5.13495361e-005, -7.20794378e-006,
          -6.93036854e-005, -5.67264215e-005, -2.03640266e-005,
          7.43251658e-005, -9.44431449e-005, -1.30949760e-004,
          -1.29678403e-004, -1.09446912e-004, -5.59210857e-005,
          5.48911485e-005, 7.72606363e-005, 1.65332473e-004,
          -2.30131318e-005, -4.88472979e-005, -5.27897027e-005,
          -7.61966658e-006, 1.30778571e-004, 1.74822562e-005,
          5.23385643e-005, 8.33665836e-005, -4.60944539e-005,
          6.24034001e-005, 2.58513355e-005, 5.35649742e-005,
          -7.78939357e-005, -1.27901367e-004, -4.01839316e-005,
          1.01369551e-004, 3.59501973e-006, -9.28189256e-005,
          -5.13840459e-005, 4.56470989e-005, -1.07124841e-004,
          -3.59223122e-005, -6.36200275e-005, -1.83848897e-004,
          -1.01823956e-004 ]
      - [ -1.63489094e-004, 8.21499052e-005, 1.71510983e-004,
          3.40264378e-004, 3.04593821e-004, 4.89888989e-005,
          -1.00621961e-004, -1.30085173e-004, -1.46345556e-004,
          -2.21195642e-005, 1.21947691e-004, 1.15848510e-004,
          3.30593699e-004, 1.20224780e-004, 8.30490899e-006,
          -2.67668802e-004, 1.37528885e-004, -9.22359686e-005,
          -9.40032114e-005, -7.47210652e-005, 2.53071285e-005,
          1.11073983e-004, -2.88411811e-005, 8.67625931e-005,
          7.63530552e-005, 5.95826577e-006, 8.95068733e-005,
          -7.31254186e-005, 2.17953184e-005, 3.39477810e-005,
          2.50219018e-004, 2.39881301e-005, 4.24473619e-005,
          2.30479811e-004, -8.50837459e-005, -3.12771415e-004,
          -1.84435266e-004, 1.99170790e-005, -8.77604325e-005,
          4.38567113e-005, 3.28094844e-004, 1.18796474e-004,
          -8.40071662e-005, -3.53146344e-004, -2.32675578e-004,
          -1.84082834e-004, 2.53654653e-005, 1.94973734e-004,
          -1.78520175e-004, 9.91220149e-005, -4.91576138e-005,
          -3.88854460e-005, -1.81054085e-004, -1.67874241e-005,
          2.12720752e-005, -1.01801917e-004, -2.87739531e-005,
          1.05905470e-004, -1.36337752e-004, -1.06527754e-004,
          -7.86597011e-005, 4.75649504e-005, -3.93457703e-005,
          -7.93184081e-005 ]
      - [ -1.50278822e-004, -9.12750693e-005, 3.21055522e-005,
          1.23520906e-004, 7.94971129e-005, 3.97410695e-005,
          -3.26826216e-006, 1.82776648e-006, -3.98703887e-005,
          4.10746179e-006, -9.82692582e-005, 1.16418450e-004,
          8.78428909e-005, 9.38372468e-005, 7.31647160e-005,
          3.14587414e-005, -9.22468098e-005, 2.90877906e-005,
          8.19360430e-005, 6.97467767e-005, 7.12128458e-005,
          4.94941305e-005, -6.46249973e-005, -6.45322189e-006,
          -8.04942829e-005, -2.03258824e-005, 2.80097574e-005,
          6.58677800e-006, 9.38993107e-005, 7.90094491e-005,
          2.21990695e-006, -3.35683253e-005, 5.90492091e-005,
          5.33531893e-005, -4.53141656e-005, -6.82573082e-005,
          3.08949202e-005, -7.63012940e-006, 8.71231241e-005,
          8.23440278e-005, 3.25904548e-005, -6.04641500e-005,
          1.76912508e-005, 2.73104597e-005, 3.53064897e-005,
          -6.36807158e-007, 3.68675355e-005, 5.09523161e-005,
          6.56459451e-005, -2.04210810e-005, 3.68525070e-005,
          -6.65285042e-005, -1.73348762e-005, -1.05402969e-005,
          6.26184337e-005, 5.99053201e-005, 4.26781844e-005,
          3.02022418e-005, 1.01571977e-005, -1.50732740e-004,
          -1.76893500e-005, 3.84461091e-005, 4.02982878e-005,
          -3.24929970e-005 ]
      - [ 2.44961964e-004, 1.60226482e-004, 3.93789291e-004,
          -6.23494780e-005, -2.75747916e-005, -1.87968672e-005,
          -3.00828142e-005, -7.47874265e-006, -3.90876194e-005,
          -6.68595458e-005, -2.29513869e-004, 1.54948735e-004,
          3.47068963e-005, -1.26392639e-004, 1.28442116e-004,
          5.60093555e-004, -1.64116835e-004, 3.06137255e-004,
          -7.15653223e-005, -1.05279855e-006, 1.94931476e-004,
          2.86849536e-004, 3.33591233e-005, -9.99680833e-006,
          6.48131572e-006, -5.49489851e-005, -1.60687370e-004,
          3.11605021e-004, 3.67629371e-004, 1.23147793e-005,
          -5.14894236e-005, -2.17528926e-004, -1.45802929e-004,
          2.90834781e-004, -1.64775513e-004, -4.31583408e-004,
          -5.08134053e-006, 1.46233739e-004, 2.39943656e-005,
          3.13302735e-005, 2.47446093e-004, 5.26709155e-005,
          1.70956439e-004, -2.44955358e-004, -3.77876102e-004,
          -3.74369702e-004, 1.41688462e-004, -4.69859951e-004,
          -4.56337912e-005, -2.12627114e-004, -1.10289504e-004,
          -1.04019477e-004, -1.71877837e-005, -7.36825023e-005,
          1.05983621e-004, 1.84396529e-004, -2.40086752e-004,
          -3.25041125e-004, 4.13311936e-005, -1.94804888e-004,
          6.33886375e-005, 1.27230131e-004, 4.17939300e-004,
          -1.57428134e-004 ]
      - [ -7.77256082e-006, 8.35242827e-005, 8.66446280e-005,
          1.32629313e-004, -8.43110229e-007, -2.77597312e-004,
          -2.05968332e-004, -8.95566973e-006, -1.15019371e-004,
          -6.00066305e-005, 1.04751009e-004, 2.54073995e-004,
          2.56434723e-004, -5.53001119e-005, -9.55529758e-005,
          -2.71181270e-005, -3.18756356e-004, 1.38263767e-005,
          -4.71357489e-005, 2.77381507e-004, 3.45018547e-004,
          9.72267881e-005, 4.36293194e-005, -6.00837348e-006,
          -1.15601586e-004, -4.44006291e-004, -2.68911772e-005,
          1.63691235e-004, 1.92202744e-004, 7.17087605e-005,
          -9.69328030e-005, -1.42741585e-004, -9.89350592e-005,
          -2.17807959e-004, -6.74943294e-005, -2.14742628e-004,
          -9.15019700e-005, -5.83333131e-005, 3.89117376e-005,
          -5.64186630e-005, 7.10759923e-005, -2.99406802e-005,
          -2.46265772e-005, -3.48353046e-006, -1.68027895e-004,
          -6.00507592e-005, 1.48674168e-004, 1.20601117e-005,
          3.48065696e-005, 1.29741660e-004, 1.47331421e-005,
          -9.79576362e-005, -5.54328690e-005, 3.15433754e-005,
          2.68019794e-005, -2.01294679e-005, 2.64739483e-005,
          1.64309473e-004, -2.85271981e-005, -2.30074453e-004,
          -2.69912824e-004, 3.27790694e-005, 1.72714936e-004,
          7.48983148e-005 ]
      - [ -2.79862812e-004, 3.53731193e-005, 1.34726506e-004,
          2.18088433e-004, -1.86791713e-005, -2.63492111e-005,
          -1.68170824e-004, -6.37709600e-005, -1.43010300e-004,
          -9.07339127e-005, -1.76637725e-004, 1.46938866e-004,
          2.33451065e-004, 1.56253998e-004, 7.24763813e-005,
          -4.05434657e-005, -6.86290659e-005, 1.17059833e-004,
          1.29724503e-004, 1.85406403e-004, -4.10667744e-005,
          -1.19370889e-004, 1.05547719e-004, -5.69399781e-005,
          6.74854255e-006, -3.67204775e-005, 1.01811245e-004,
          1.09722414e-005, 3.78900440e-005, -1.02424048e-004,
          1.51856642e-004, -3.80349557e-005, -1.79500799e-004,
          -2.91152464e-005, -7.06914871e-005, -1.65126665e-004,
          -7.98942056e-005, 2.49147470e-005, 1.72243570e-004,
          8.41998462e-006, 3.44692817e-005, 3.42135718e-005,
          6.58557610e-006, 4.44403922e-005, -1.81342271e-004,
          -1.28268643e-004, -1.50888072e-005, 1.79706258e-005,
          -1.95809160e-004, 3.80931306e-006, 4.77979593e-005,
          -7.65766599e-005, -1.26203922e-005, -3.80305719e-005,
          2.93563789e-004, 4.75152092e-006, -2.58276123e-004,
          -2.21676790e-004, 1.23167090e-004, 6.25476023e-005,
          6.74403009e-006, 6.83230464e-005, -7.72786734e-006,
          -2.75894505e-004 ]
      - [ -5.78557010e-005, 5.15569482e-005, 8.38735741e-006,
          -1.83737734e-006, 2.18295809e-005, 3.84712366e-005,
          5.56467676e-005, 7.61417468e-005, -5.15170468e-005,
          4.15285140e-005, 5.86390779e-005, -7.32696572e-006,
          -1.39344811e-005, -1.60212567e-005, -1.19254983e-004,
          -1.40178265e-004, 4.21959849e-005, 9.60982725e-005,
          -1.15628871e-004, -2.23098414e-005, -4.26348015e-005,
          1.28507791e-005, -3.47402638e-005, 2.32266466e-005,
          6.48594214e-005, 4.33057030e-005, 1.08122054e-004,
          -8.26712130e-005, -4.80422386e-005, -1.99204824e-005,
          5.45725779e-005, 6.24630557e-005, 1.68691520e-004,
          1.02560945e-004, 1.19749595e-004, 5.75857439e-006,
          -8.80417574e-005, -1.12714821e-004, -1.09618204e-005,
          5.13240375e-005, 1.20734483e-004, -7.47077729e-006,
          -1.79382667e-004, -2.03146075e-004, -6.43630992e-005,
          -2.02816773e-005, -2.26119864e-005, 1.04869803e-004,
          -5.95790334e-005, -1.40067175e-004, 5.64127986e-005,
          -1.03133580e-005, -2.86320228e-005, -7.44814897e-005,
          -9.91972338e-005, 7.06558649e-006, 3.44062028e-005,
          8.22115180e-005, 1.69210543e-005, 5.36775879e-005,
          1.31098341e-005, 5.78958934e-005, 1.13657268e-004,
          -1.90024384e-005 ]
      - [ -3.32294789e-004, -6.41824226e-005, 9.23335610e-005,
          3.83155275e-005, 5.33582497e-005, 1.28224565e-004,
          2.32311082e-004, 1.73269495e-004, -2.06156401e-005,
          -2.39160254e-005, -3.02030530e-004, 1.77418260e-005,
          2.31398972e-005, 2.79185224e-005, 1.37248198e-005,
          4.38698953e-005, 1.03647735e-005, 1.02539670e-004,
          -1.31047200e-004, -5.12797851e-006, -3.62738319e-006,
          1.18006079e-004, -4.04164311e-005, -5.66315393e-005,
          -2.59552180e-004, -5.74719877e-007, 8.56927800e-005,
          2.34872219e-004, 2.66278385e-005, 1.03382197e-004,
          7.12063047e-005, -1.16025156e-004, 2.09562029e-004,
          2.06628960e-004, -8.54829777e-005, -1.56673734e-004,
          -1.14679729e-004, -1.82108372e-004, -1.19621815e-004,
          1.73624954e-004, 1.00001860e-004, -2.41712245e-004,
          3.41237319e-005, -1.65021571e-004, 7.00600731e-006,
          -5.70876218e-005, -2.45214833e-005, 4.24662903e-005,
          6.25561588e-005, -1.71345295e-004, 5.83008932e-006,
          -9.43265768e-005, 4.63010620e-005, 1.35235314e-004,
          -6.76908894e-005, -8.28093252e-005, 1.82263699e-004,
          1.27111474e-004, -5.21425100e-005, -1.89343467e-004,
          -2.03836069e-004, 4.41509728e-005, 1.04720930e-004,
          4.94137112e-006 ]
      - [ 1.62542958e-004, 1.36605348e-004, -5.50912991e-005,
          -1.81776253e-004, -1.19973680e-004, 7.02414400e-005,
          1.00836864e-004, 7.02958641e-005, 7.19347663e-005,
          8.30743284e-006, -1.09221393e-004, -1.46290506e-004,
          -2.17367226e-004, -1.11814828e-004, -6.70319059e-005,
          1.10669360e-004, -2.81916618e-005, -1.86007732e-004,
          -1.08777633e-004, 1.72429063e-005, -4.75554225e-005,
          7.66516896e-005, 7.74462969e-005, -7.41495069e-006,
          1.75737259e-005, 3.10156029e-005, -4.48111969e-005,
          3.15637189e-005, 1.57268354e-004, 2.11515842e-004,
          -6.35684191e-005, -3.08874187e-005, 1.13025388e-004,
          1.55832007e-004, 9.45252177e-005, -4.01129182e-006,
          -9.92830901e-005, 5.37264350e-005, -3.28065398e-005,
          4.86075332e-005, -2.82138099e-005, -3.51632734e-005,
          1.34610855e-006, -1.19060285e-004, -6.13672601e-005,
          -2.25430151e-004, -5.65731170e-005, -1.48111038e-004,
          6.03138506e-006, -1.97796078e-004, -1.39018783e-004,
          4.45547121e-005, 1.01328420e-004, 5.72397596e-007,
          -3.21590742e-005, -1.12872651e-004, -9.06009518e-005,
          -2.91346314e-005, -5.30204234e-005, 1.58717550e-004,
          1.92363601e-004, 1.56433365e-004, 2.11129474e-004,
          4.08301275e-005 ]
      - [ 4.83544900e-005, 1.99266942e-004, -6.57502169e-005,
          -1.28809130e-004, -9.49398673e-005, -4.13451016e-005,
          4.11520450e-005, 2.24341929e-004, 1.13113150e-004,
          -1.14565963e-004, -9.05072520e-005, -3.14108038e-005,
          -1.70380459e-004, -2.37494489e-004, -3.33389849e-004,
          -3.60617123e-005, -7.65150617e-005, -7.59769027e-005,
          6.25613438e-006, 1.14002098e-004, 7.84120220e-006,
          -4.99655835e-005, 1.90845858e-005, -2.14003332e-004,
          -3.34119650e-005, 7.42032571e-005, 1.45349826e-004,
          7.70029001e-005, 1.37149589e-004, 1.73370834e-004,
          -1.02990591e-004, -1.58023497e-004, 1.77481095e-004,
          1.34779266e-005, 4.12295776e-005, 2.28891276e-005,
          -2.69790646e-004, -1.78319839e-004, -4.50323096e-005,
          1.47990477e-007, -4.57171591e-005, -1.16130956e-004,
          -1.36688410e-004, -3.10468720e-004, -1.86624471e-004,
          -2.68681964e-004, 1.27790581e-005, 3.38220416e-005,
          -5.98247207e-005, -2.08373487e-004, -9.39241581e-005,
          2.25802451e-005, 9.09200826e-005, 1.34082977e-004,
          -3.77521908e-004, -8.57977575e-005, 1.86670528e-004,
          1.25993683e-004, 1.34663578e-005, 7.46908190e-005,
          -1.27622014e-004, 1.15993258e-004, 8.45481190e-005,
          8.69181458e-005 ]
      - [ -5.29087483e-005, -3.35372679e-005, -3.96804389e-004,
          -2.86139373e-004, 1.90669361e-005, 2.60648201e-004,
          1.46770180e-004, -4.73339896e-005, -9.70258116e-005,
          -2.71293684e-004, -6.19135506e-004, -3.75451171e-004,
          -1.42772740e-004, -4.92263716e-005, -9.34267518e-005,
          -1.70697400e-004, 1.96304936e-005, 2.95242239e-006,
          -4.14279348e-005, 1.90814404e-004, -2.84732465e-004,
          -4.19304524e-005, -8.74762773e-005, 1.48451494e-004,
          1.22326775e-004, 6.39251593e-005, 2.74078479e-006,
          2.78998312e-004, 1.40091870e-004, 2.25913755e-004,
          -2.63906113e-004, -6.78103606e-005, 1.86895792e-004,
          1.38691990e-004, -1.95653820e-006, 9.31081468e-006,
          -4.36319271e-004, -4.03474463e-004, -3.51265393e-004,
          -3.89265952e-005, 1.24398852e-004, 1.43885307e-004,
          -1.57762712e-004, -5.06749842e-004, -6.88877655e-004,
          -4.37147100e-004, -2.61419860e-004, -1.10118453e-004,
          -2.94383153e-005, -4.13546804e-004, 1.56145892e-004,
          2.70958350e-004, 2.86020892e-004, -8.44637398e-005,
          -1.39248295e-004, -1.37764684e-004, -1.12143163e-004,
          2.33372484e-004, 2.00167546e-004, 4.98272711e-004,
          2.49798904e-004, 2.13233361e-004, 1.14758710e-004,
          -4.84050906e-005 ]
      - [ -6.51525697e-005, -1.19872660e-004, -9.44088315e-005,
          1.12735019e-004, 3.33235694e-005, 5.46168303e-005,
          2.59963781e-005, 1.13282957e-004, -8.81168453e-005,
          -1.18599753e-004, -1.47130108e-004, 5.37904380e-005,
          1.46474295e-005, 1.37412399e-005, 3.63705476e-005,
          1.89946542e-004, -2.01591669e-004, 4.46604899e-005,
          1.20645542e-004, 6.50349011e-006, 2.81650937e-005,
          -6.61112645e-005, -5.77539367e-007, 2.59982244e-005,
          -1.41517463e-004, -6.22186344e-005, 8.11951541e-005,
          2.50301673e-004, 7.14541529e-005, 8.94502300e-005,
          -4.91615247e-005, -1.22861398e-004, -1.71058127e-005,
          2.28486060e-005, -1.37294832e-004, -7.35413341e-005,
          1.70571111e-005, 1.80950723e-004, -3.34787801e-005,
          2.08951642e-005, -1.45753787e-004, -4.11959809e-005,
          1.81874333e-004, 1.90618375e-004, 8.88030409e-005,
          -1.34821394e-005, 1.48920517e-005, 4.64629375e-006,
          9.57558659e-005, 5.29566314e-005, 7.88395482e-006,
          -3.21177758e-005, 1.12204638e-004, 1.05187675e-004,
          7.15472270e-005, -4.74419830e-005, 6.85466875e-005,
          4.79693299e-005, -7.96369422e-005, -1.39695811e-004,
          -9.10549861e-005, -8.34811726e-005, 2.38733592e-005,
          1.15338444e-004 ]
      - [ 1.38658579e-004, 2.03043401e-005, -3.87163927e-005,
          -8.00457856e-005, -1.02099708e-004, 1.24026483e-005,
          3.74805531e-005, 3.50943519e-005, 7.42599741e-006,
          -6.39379723e-005, -4.91323372e-005, -4.28892599e-005,
          -6.39506616e-005, 1.61988355e-005, 9.62702034e-005,
          1.67624443e-004, -6.52836025e-005, -1.06395222e-004,
          1.25901628e-004, 2.02226547e-005, 9.16967474e-006,
          4.38205498e-005, 5.11956096e-005, -4.27525447e-005,
          -3.79579506e-005, -3.55439770e-005, -8.45704271e-005,
          3.58725119e-005, 7.35244248e-005, 1.15331379e-004,
          2.58878226e-005, -1.24042184e-004, -8.59568318e-005,
          -5.37258275e-005, 8.82865243e-006, 8.86171438e-006,
          4.27508858e-005, 9.51703551e-005, 1.93156629e-005,
          -2.40893405e-005, -5.10915525e-005, -5.55802253e-005,
          1.33471476e-004, 2.19413632e-004, 3.15011530e-005,
          -6.16950929e-005, -3.97650037e-005, -1.09317662e-004,
          1.20418772e-004, 5.46330411e-005, -4.87488433e-005,
          2.88455940e-005, 1.63134864e-005, 3.48222638e-005,
          6.37444537e-005, 2.51256515e-005, -3.27598573e-005,
          -6.52306699e-005, -1.79624351e-006, 3.98564625e-005,
          6.27369445e-005, 1.95600182e-006, -4.06043364e-006,
          -5.41404879e-005 ]
      - [ 1.76603324e-004, 5.33883576e-005, -8.30461940e-005,
          1.79390227e-005, -1.00970028e-004, -1.74817091e-004,
          -8.48482960e-005, 6.12645163e-005, 6.12836666e-005,
          -3.33386160e-005, -1.34906120e-004, -2.17265770e-004,
          1.32413887e-004, 1.50383901e-004, -4.98150112e-005,
          1.43997633e-004, -3.40152066e-004, -3.60359583e-004,
          1.66565907e-004, 2.80614127e-004, 2.47370714e-004,
          -2.09962309e-005, 9.99003751e-005, 1.41987810e-004,
          -1.76797519e-004, -2.08466910e-004, 3.07659247e-005,
          3.45718116e-004, 1.14059651e-004, 2.94475351e-004,
          -2.79263713e-005, -2.64795264e-004, -1.88373713e-004,
          -3.05538037e-004, -2.39877147e-004, -1.11165376e-004,
          -3.23536151e-005, -2.10268321e-004, -1.80515082e-004,
          -2.28028526e-004, -7.79559996e-005, 1.56956248e-005,
          1.38779986e-004, 3.83101578e-004, 4.07407570e-005,
          -6.43507883e-005, -8.69559808e-005, -1.86961450e-004,
          2.16573288e-004, 2.36659835e-004, 1.55420697e-004,
          1.09376859e-004, 2.65638315e-004, 8.67409763e-005,
          -5.95892161e-005, 1.07851316e-004, 1.55395046e-005,
          -1.24096201e-004, 2.28085719e-005, -1.95213986e-004,
          -1.87462632e-004, -3.24643741e-004, 1.03676408e-004,
          2.94640544e-004 ]
      - [ 1.44794278e-004, 1.93228370e-005, -1.08959845e-004,
          -5.34929823e-005, -6.61951926e-005, -9.18865408e-006,
          -1.11624049e-005, -4.69531115e-005, 8.56864790e-005,
          -7.55754154e-005, -1.11504916e-004, 9.51303355e-006,
          -1.35577953e-004, -1.94443855e-005, 9.07509966e-005,
          1.21389494e-004, -1.31802270e-004, -3.62553619e-005,
          1.99921866e-004, -3.83911283e-005, 5.99965679e-005,
          -6.87589491e-005, 3.28811730e-005, -1.48652602e-004,
          8.36940490e-006, -2.47533844e-005, 4.57486603e-005,
          1.18007083e-004, 1.48795016e-006, 5.00382157e-005,
          1.74859524e-005, -5.07275654e-005, -3.60628546e-005,
          -7.40076721e-005, -1.35474605e-004, 9.05882098e-006,
          8.45264094e-006, 1.09146167e-004, 1.08175314e-004,
          -1.71318417e-004, -1.01372731e-004, 3.67825742e-005,
          1.88065940e-004, 1.88943319e-004, -6.22633161e-005,
          -7.54891444e-005, -4.71213789e-005, -6.62293460e-005,
          4.29682186e-005, 3.92351394e-005, -5.43517817e-005,
          4.20894685e-006, 6.35795077e-005, 7.70812840e-005,
          1.45860453e-004, 4.86916906e-005, -1.48335646e-004,
          -1.46244303e-004, 1.46961072e-004, 6.69878718e-005,
          -1.67715261e-005, -4.74816261e-005, 7.40436872e-006,
          -5.21835864e-005 ]
      - [ 1.74523855e-004, 7.99721383e-005, -9.01313626e-007,
          -9.44856947e-005, -9.23360349e-005, -2.03073687e-005,
          -6.06090771e-006, 1.25349952e-005, 4.47386083e-005,
          -1.42024701e-005, 8.68060379e-005, -8.24233066e-005,
          -9.07556678e-005, -4.00871650e-005, -3.54573458e-005,
          3.09485449e-006, -3.89144152e-005, -9.55795040e-005,
          -1.25947336e-005, -2.76890514e-005, 2.09829250e-005,
          2.04800090e-005, 6.57466153e-005, 1.41930050e-005,
          2.54220904e-005, -3.63082509e-005, -5.93072073e-005,
          -1.30140393e-006, 8.19602355e-005, 1.81002742e-005,
          3.59280202e-005, -2.73798196e-005, -4.40633703e-005,
          1.52243792e-005, 8.49607895e-005, -1.51840750e-005,
          -4.35434595e-005, 1.81050618e-005, 1.71388183e-005,
          -8.73545941e-005, 9.70355632e-006, 3.50916634e-005,
          8.15502244e-006, -2.45381852e-005, -3.64043299e-005,
          -4.14660426e-005, -1.62245487e-005, -8.28564953e-005,
          -4.20737633e-005, 1.40658431e-005, -3.31529227e-005,
          8.00817725e-006, -1.29934679e-005, -1.52298289e-005,
          1.01545402e-005, -3.65000888e-005, -7.41231124e-005,
          -8.57164196e-005, 1.39494468e-005, 9.33211631e-005,
          6.48059504e-005, 2.13514045e-006, 3.96055384e-006,
          1.31917386e-005 ]
      - [ 3.48301983e-004, 3.38956539e-004, -8.92466633e-005,
          -2.53704056e-004, -1.81464551e-004, -1.05787884e-004,
          -1.06775246e-004, -6.15073877e-005, 6.68338616e-005,
          8.69106661e-005, 1.57760107e-004, -8.52685262e-005,
          -2.01947914e-005, -5.36090156e-005, -2.15528606e-004,
          -3.30713199e-004, -1.31913330e-004, -8.87165224e-005,
          -3.46914999e-006, 2.59526405e-006, 7.17783696e-005,
          -1.58274961e-005, 1.12802896e-004, -1.04086619e-004,
          1.45419335e-005, -7.69867329e-005, -1.32868241e-004,
          5.55595470e-005, 9.51834663e-005, -1.12490496e-004,
          -8.36112595e-005, -4.34544745e-005, -5.45911716e-005,
          -9.04126355e-005, 1.08315915e-004, 8.25471143e-005,
          4.72988795e-005, -6.73778122e-005, -2.51337158e-004,
          -1.44609337e-004, 3.06451911e-005, 8.79496220e-005,
          -2.91282195e-005, -8.28972770e-005, -1.12403708e-004,
          -1.00162790e-004, -4.91035098e-006, -1.15314921e-004,
          -1.65585137e-004, 1.11665700e-004, -7.75487060e-005,
          -1.33116246e-005, 5.60829540e-005, -1.36304334e-005,
          -1.73380729e-004, 2.87286241e-007, 9.73888928e-006,
          -3.65196720e-005, -4.73533219e-005, 1.00655314e-004,
          4.29669199e-005, 9.67633750e-005, -3.78518926e-005,
          7.05632119e-005 ]
      - [ 1.29886626e-004, 1.07282220e-004, -1.13800306e-004,
          -7.97989342e-005, 1.24491487e-006, -3.98235243e-005,
          -1.53490200e-005, -1.96337587e-005, 4.10033317e-005,
          2.21985192e-005, 9.11342067e-006, -2.65524741e-005,
          -5.78376312e-005, -1.06285115e-005, -2.89955169e-005,
          -8.76728809e-005, -4.35752845e-005, -2.78241587e-005,
          -5.65732989e-006, 1.63102886e-005, 6.32418050e-006,
          -4.93455336e-005, 1.58115108e-005, -1.07055803e-005,
          7.75916997e-005, 8.48922718e-006, -5.37784672e-006,
          -6.06476569e-005, 6.97172572e-006, -3.67857028e-005,
          6.29403003e-005, 1.76471167e-005, -2.13030307e-005,
          -3.98341872e-005, 1.08540771e-005, -2.06891527e-005,
          -4.18836935e-005, -3.15189682e-005, 1.03266784e-005,
          -1.29873195e-004, -4.11711117e-005, 7.94059815e-005,
          3.29509953e-006, -6.91314272e-005, -9.06526548e-005,
          -1.84974797e-005, -2.96419312e-005, -2.75749771e-005,
          -4.63107644e-005, 2.66702336e-005, -3.17887316e-005,
          7.96349195e-005, -2.81051234e-005, 3.72898285e-005,
          -7.46509386e-006, 2.58978434e-005, -1.90977662e-004,
          -1.12546339e-004, 1.71162712e-004, 1.65902078e-004,
          5.50347759e-005, -5.56869309e-005, -6.98733993e-006,
          -3.92344264e-005 ]
      - [ -4.36938390e-005, -4.43807858e-006, 1.42967074e-005,
          1.64943835e-004, 1.05387284e-004, -1.09072658e-004,
          -2.36184133e-004, -1.42391393e-004, -7.04215417e-005,
          -8.66360188e-006, 1.10214269e-005, 1.53276997e-004,
          2.76222592e-004, -3.00503416e-005, -2.58018874e-004,
          -4.22093028e-004, 6.18150589e-005, -2.45220581e-005,
          7.91269995e-005, 1.29696826e-004, 1.29532955e-005,
          -1.22600220e-004, -6.20289720e-005, -4.11899346e-005,
          -1.08474036e-004, -4.44621364e-005, 2.27258279e-004,
          -8.02406248e-006, -1.96798079e-004, -2.17722729e-004,
          -9.58267556e-005, 6.22665975e-005, -1.57834977e-004,
          -8.74860052e-005, -2.01190283e-004, 2.20781549e-005,
          -1.41628319e-004, -2.06037112e-005, -1.83257551e-004,
          1.36392628e-004, -6.46254121e-005, -6.52796152e-005,
          -7.58140086e-005, -1.08099848e-004, -5.48244134e-006,
          1.30242785e-004, -3.84012055e-005, 1.13418653e-004,
          2.23834322e-005, 5.90083000e-005, 6.51360460e-005,
          1.09526234e-004, -9.36264987e-005, 1.61620133e-004,
          -6.47001616e-006, -2.26990902e-004, 2.66336952e-004,
          1.36341027e-004, 5.16716818e-006, -2.08647645e-004,
          -2.26561038e-004, -4.37338895e-005, -1.40173317e-004,
          6.42649902e-005 ]
      - [ -5.71520650e-004, -2.61385780e-004, -1.07066138e-004,
          -1.85909666e-004, 3.22842854e-004, 5.03515010e-004,
          1.62360266e-005, -4.48102743e-004, -1.75835215e-004,
          4.54526948e-004, 1.19320452e-004, 5.41505113e-004,
          4.67327656e-004, -6.46552144e-005, -2.16476998e-004,
          -2.92376179e-004, 2.94269237e-004, 4.85109864e-004,
          3.37561709e-004, 3.05637950e-004, -1.75097914e-004,
          -1.02403283e-003, -9.67216503e-004, -5.06933546e-004,
          -4.53969784e-004, 1.73417677e-004, 5.96053142e-004,
          -5.33255161e-006, -4.70422150e-004, -8.63151625e-004,
          2.61507434e-004, 2.91955628e-004, 5.97202103e-004,
          5.04384399e-004, 2.48532651e-005, 8.73497775e-005,
          5.12839433e-005, -9.40532773e-005, -1.86739981e-005,
          -2.35647152e-004, 2.40209614e-004, -1.44643782e-004,
          4.43727971e-004, 5.12496808e-005, 1.42283636e-004,
          -1.88610982e-004, 3.54640681e-004, 1.02789199e-003,
          -1.81565309e-004, 4.28496685e-004, -1.10523557e-004,
          -1.10056928e-004, 5.81050044e-005, -7.35596986e-005,
          5.65211696e-004, 6.07496651e-004, -4.04165912e-005,
          -5.09262281e-006, 1.55546499e-004, 5.50112512e-004,
          -2.33604253e-004, -5.29564277e-004, -6.30412309e-004,
          -5.26796852e-004 ]
      - [ -4.88596888e-005, -9.16626668e-005, -8.05626114e-005,
          -3.23872919e-005, 1.72260596e-004, 2.08048659e-005,
          1.10157380e-004, -3.17931881e-005, -1.79614854e-005,
          4.09484674e-005, -4.50570187e-005, 3.49673683e-005,
          -2.91706001e-005, 1.48861669e-004, 2.05174962e-004,
          -4.52347413e-005, 8.24988238e-005, 1.33596608e-004,
          -4.89710728e-005, -4.43905446e-005, -1.60699947e-005,
          -1.69763312e-004, -5.82383582e-005, -6.00778840e-005,
          4.53366665e-005, 6.02432301e-005, 1.22005687e-004,
          -4.91000901e-005, -1.62863929e-004, -6.97110081e-005,
          4.74702028e-005, 1.73109976e-004, 6.58090139e-005,
          2.62776011e-005, -2.84875532e-005, 8.64103276e-006,
          2.40703903e-005, 1.45264630e-005, 3.89787056e-005,
          -3.57937606e-005, 4.60648189e-005, -2.11260340e-005,
          1.13943046e-004, -7.94216903e-005, -1.90697145e-004,
          -6.78471133e-006, -4.07769003e-005, 6.67117129e-005,
          -1.62626500e-004, 3.81412133e-006, -1.53511282e-004,
          7.40303876e-005, -2.22409562e-005, 2.19724716e-005,
          1.19942350e-004, 1.35623966e-004, -2.51284015e-004,
          -1.37616109e-004, 1.51918415e-004, 2.74018443e-004,
          7.22593541e-005, 3.18703060e-005, 1.10846668e-004,
          -2.45558214e-004 ]
   decision_functions:
      -
         sv_count: 1
         rho: 1.2630113085490329e+000
         alpha: [ 1. ]
         index: [ 0 ]
      -
         sv_count: 1
         rho: 9.5300543008339689e-001
         alpha: [ 1. ]
         index: [ 1 ]
      -
         sv_count: 1
         rho: 7.4129029583133998e-001
         alpha: [ 1. ]
         index: [ 2 ]
      -
         sv_count: 1
         rho: 1.0356014793279154e+000
         alpha: [ 1. ]
         index: [ 3 ]
      -
         sv_count: 1
         rho: 6.2733685003271511e-001
         alpha: [ 1. ]
         index: [ 4 ]
      -
         sv_count: 1
         rho: 5.5996889181512566e-001
         alpha: [ 1. ]
         index: [ 5 ]
      -
         sv_count: 1
         rho: 3.2780381301766126e-001
         alpha: [ 1. ]
         index: [ 6 ]
      -
         sv_count: 1
         rho: 9.7828555299263420e-001
         alpha: [ 1. ]
         index: [ 7 ]
      -
         sv_count: 1
         rho: 1.0350073591971769e+000
         alpha: [ 1. ]
         index: [ 8 ]
      -
         sv_count: 1
         rho: 1.8747278429036779e-001
         alpha: [ 1. ]
         index: [ 9 ]
      -
         sv_count: 1
         rho: 6.4212507059266247e-002
         alpha: [ 1. ]
         index: [ 10 ]
      -
         sv_count: 1
         rho: 9.2109530735808264e-003
         alpha: [ 1. ]
         index: [ 11 ]
      -
         sv_count: 1
         rho: -2.8790327523941939e-001
         alpha: [ 1. ]
         index: [ 12 ]
      -
         sv_count: 1
         rho: 7.1306439331977389e-001
         alpha: [ 1. ]
         index: [ 13 ]
      -
         sv_count: 1
         rho: -5.9362967888849438e-001
         alpha: [ 1. ]
         index: [ 14 ]
      -
         sv_count: 1
         rho: -3.4313926393922023e-001
         alpha: [ 1. ]
         index: [ 15 ]
      -
         sv_count: 1
         rho: -9.1585380377116221e-001
         alpha: [ 1. ]
         index: [ 16 ]
      -
         sv_count: 1
         rho: 5.1950393474101131e-001
         alpha: [ 1. ]
         index: [ 17 ]
      -
         sv_count: 1
         rho: -2.8186838468888031e-001
         alpha: [ 1. ]
         index: [ 18 ]
      -
         sv_count: 1
         rho: -5.5816133545498470e-002
         alpha: [ 1. ]
         index: [ 19 ]
      -
         sv_count: 1
         rho: -5.9028388576316836e-002
         alpha: [ 1. ]
         index: [ 20 ]
      -
         sv_count: 1
         rho: -7.8357311064019253e-001
         alpha: [ 1. ]
         index: [ 21 ]
      -
         sv_count: 1
         rho: -1.4219071919123243e+000
         alpha: [ 1. ]
         index: [ 22 ]
      -
         sv_count: 1
         rho: -8.9809192829594597e-001
         alpha: [ 1. ]
         index: [ 23 ]
      -
         sv_count: 1
         rho: -1.9126657944983935e-001
         alpha: [ 1. ]
         index: [ 24 ]
      -
         sv_count: 1
         rho: -1.1475717750742903e-001
         alpha: [ 1. ]
         index: [ 25 ]
      -
         sv_count: 1
         rho: 3.7845445532440214e-001
         alpha: [ 1. ]
         index: [ 26 ]
      -
         sv_count: 1
         rho: 3.6009320079666929e-001
         alpha: [ 1. ]
         index: [ 27 ]
      -
         sv_count: 1
         rho: 6.7219234608913908e-002
         alpha: [ 1. ]
         index: [ 28 ]
      -
         sv_count: 1
         rho: -7.9465587322681941e-001
         alpha: [ 1. ]
         index: [ 29 ]
      -
         sv_count: 1
         rho: 1.8527684697274425e-002
         alpha: [ 1. ]
         index: [ 30 ]
      -
         sv_count: 1
         rho: -1.5314125595993084e+000
         alpha: [ 1. ]
         index: [ 31 ]
      -
         sv_count: 1
         rho: -4.1324743840905781e-001
         alpha: [ 1. ]
         index: [ 32 ]
      -
         sv_count: 1
         rho: -3.8063451097279427e-001
         alpha: [ 1. ]
         index: [ 33 ]
      -
         sv_count: 1
         rho: -2.1766222479614004e+000
         alpha: [ 1. ]
         index: [ 34 ]
      -
         sv_count: 1
         rho: -4.8816365909433668e-001
         alpha: [ 1. ]
         index: [ 35 ]
      -
         sv_count: 1
         rho: 6.3823485526949919e-001
         alpha: [ 1. ]
         index: [ 36 ]
      -
         sv_count: 1
         rho: -1.4450411338126740e-001
         alpha: [ 1. ]
         index: [ 37 ]
      -
         sv_count: 1
         rho: 5.0200223811347124e-002
         alpha: [ 1. ]
         index: [ 38 ]
      -
         sv_count: 1
         rho: 1.0707812659279224e-002
         alpha: [ 1. ]
         index: [ 39 ]
      -
         sv_count: 1
         rho: 3.4436520934286613e-001
         alpha: [ 1. ]
         index: [ 40 ]
      -
         sv_count: 1
         rho: -4.4762549007206021e-001
         alpha: [ 1. ]
         index: [ 41 ]
      -
         sv_count: 1
         rho: -7.1848178726302836e-001
         alpha: [ 1. ]
         index: [ 42 ]
      -
         sv_count: 1
         rho: 2.1330996420328732e+000
         alpha: [ 1. ]
         index: [ 43 ]
      -
         sv_count: 1
         rho: -5.8109067654261348e-001
         alpha: [ 1. ]
         index: [ 44 ]
